%YAML:1.0
---
HOGDescriptorEsp: !!opencv-object-detector-hog
   winSize: [ 32, 32 ]
   blockSize: [ 16, 16 ]
   blockStride: [ 8, 8 ]
   cellSize: [ 4, 4 ]
   nbins: 9
   derivAperture: 1
   winSigma: 4.
   histogramNormType: 0
   L2HysThreshold: 2.0000000000000001e-01
   gammaCorrection: 0
   nlevels: 64
   signedGradient: 0
   SVMDetector: [ -5.63629031e-01, -4.92225915e-01, -1.96122959e-01,
       7.88468495e-03, -9.54981208e-01, -4.27507490e-01, -7.18887925e-01,
       -4.77529109e-01, 1.13148674e-01, 5.49661703e-02, -2.99279839e-01,
       2.00036049e-01, 6.05558574e-01, -5.48919797e-01, -9.49794233e-01,
       -2.41309822e-01, -6.06372952e-01, 8.74488711e-01, 7.80404925e-01,
       -2.80875415e-01, 1.00105214e+00, 6.25437796e-02, -2.26878509e-01,
       -5.95865369e-01, 9.89330471e-01, 7.35482812e-01, 1.81758419e-01,
       -3.12509298e-01, 3.82615983e-01, 3.56311709e-01, 7.80824065e-01,
       -4.38778311e-01, 2.81512707e-01, -4.25667286e-01, 1.23628438e-03,
       4.01137397e-02, -3.98812741e-01, -4.60390568e-01, 6.87335730e-01,
       -1.53861940e+00, 1.23359895e+00, -9.17685986e-01, -4.54677165e-01,
       -3.16477239e-01, -1.15634894e+00, 6.37464166e-01, 4.28607792e-01,
       3.83128017e-01, -3.53467822e-01, 5.74131131e-01, -2.90280759e-01,
       5.21843433e-01, 3.70224029e-01, 2.01737732e-01, 6.28678679e-01,
       -1.75529718e-01, -5.97310126e-01, -7.51073718e-01, 3.60129237e-01,
       -4.91059959e-01, -4.93734598e-01, -5.55143535e-01,
       -8.19849551e-01, 8.56017828e-01, 8.54841590e-01, 7.26709783e-01,
       3.60480845e-01, 1.10753810e+00, 8.37715089e-01, 3.83101463e-01,
       1.37417006e+00, 7.29082286e-01, 3.33812088e-01, -2.74382588e-02,
       1.16664982e+00, -8.72532725e-01, 6.93626478e-02, 5.68053164e-02,
       -5.49214184e-01, 2.42807105e-01, -1.14743614e+00, -2.48852931e-02,
       1.71594650e-01, -1.59682944e-01, -6.96729243e-01, 2.05328792e-01,
       -6.52081788e-01, -1.36848092e-01, -3.33866954e-01, 9.77181494e-02,
       -7.51344442e-01, -7.79752254e-01, -9.89709735e-01,
       -1.21687770e-01, 3.07813853e-01, -6.89582348e-01, -8.28315914e-01,
       -7.07856178e-01, 1.11353643e-01, -4.27763522e-01, 1.22097170e+00,
       4.35683101e-01, 6.46681130e-01, -7.80932665e-01, 9.26536694e-03,
       1.29945087e+00, 1.03619194e+00, 9.29329813e-01, -6.82025373e-01,
       -1.89220235e-01, -7.28971362e-01, 2.67527640e-01, 3.58740240e-01,
       1.64800182e-01, 8.91615897e-02, -7.12136552e-02, -5.45310676e-01,
       1.13832116e+00, 6.86839461e-01, -4.24183697e-01, 1.19227774e-01,
       1.89972371e-02, 2.87997723e-01, 1.71049464e+00, 2.71902889e-01,
       1.60754621e+00, 1.07740760e+00, 1.03816044e+00, -2.12265149e-01,
       2.95335025e-01, 1.94682658e-01, 6.63350642e-01, 6.38062432e-02,
       8.29635322e-01, -3.04182291e-01, 2.04584226e-01, 2.35751018e-01,
       7.18833566e-01, 1.37012386e+00, 1.51140141e+00, 2.51600218e+00,
       1.45033288e+00, 1.28134763e+00, -2.43070841e-01, 3.52205276e-01,
       6.21941864e-01, 3.90876770e-01, 6.61614239e-01, -2.72418320e-01,
       -1.62229866e-01, 5.73308542e-02, 2.78965533e-01, 4.69248742e-01,
       -6.59341455e-01, -6.13616884e-01, -5.68269253e-01,
       -5.74259460e-01, -7.04255104e-01, 1.03433244e-01, 1.90534577e-01,
       -2.19362732e-02, -1.84413269e-01, 7.10124731e-01, -1.96359888e-01,
       4.34381694e-01, -2.48437654e-02, -7.61425972e-01, -8.21016669e-01,
       3.74002874e-01, -1.03254385e-01, 4.54860389e-01, 2.42741004e-01,
       -2.83074886e-01, -6.01578914e-02, 1.75117135e-01, -1.29206926e-01,
       7.92884469e-01, 3.35459441e-01, 4.10452992e-01, 2.08977852e-02,
       9.56625223e-01, 8.85287702e-01, 3.51829827e-01, -6.61958575e-01,
       1.29708219e+00, 1.20304704e+00, -5.45618713e-01, 8.12389016e-01,
       8.05361867e-01, 8.17642987e-01, 1.16614841e-01, 8.20607841e-01,
       -3.99397612e-01, 6.53459191e-01, -9.51258063e-01, 8.83605540e-01,
       -4.56044734e-01, 5.58021367e-01, -9.84950006e-01, 9.99300539e-01,
       -6.69564903e-01, -5.01594722e-01, 2.16350004e-01, -1.31743699e-01,
       6.74665153e-01, 1.00047067e-01, 1.95965916e-01, 8.31021309e-01,
       1.01723719e+00, 4.79690671e-01, 6.81411922e-01, 1.13788450e+00,
       1.02770615e+00, 1.07887077e+00, 1.43878984e+00, 2.46014968e-01,
       1.00150776e+00, 2.42354318e-01, 1.62313628e+00, 1.77743822e-01,
       -4.30138409e-01, 1.57144412e-01, 3.29286963e-01, -4.95575964e-01,
       5.58119476e-01, 4.47847366e-01, -5.85970521e-01, -1.06858775e-01,
       -3.30830812e-01, 4.20370191e-01, 1.23919189e-01, -7.59738505e-01,
       -5.91140330e-01, 1.23630702e-01, 1.93985194e-01, 2.96514690e-01,
       3.65022689e-01, -3.54069263e-01, 6.01863682e-01, -4.13377196e-01,
       -8.04511547e-01, -4.26128097e-02, -3.71224374e-01, 2.06878543e-01,
       -6.00339174e-01, 4.46418315e-01, 3.32758904e-01, -1.12919614e-01,
       -3.53885859e-01, 2.65387595e-01, -5.62974572e-01, -6.81459069e-01,
       7.50035346e-01, 1.51165485e+00, -1.33566841e-01, 7.59596303e-02,
       -9.27997380e-02, 3.67641807e-01, -5.26424885e-01, -4.02340382e-01,
       -7.04323873e-02, 1.89375508e+00, 1.19315565e+00, 2.16092849e+00,
       1.53406358e+00, 1.48499680e+00, 1.33957744e+00, 2.14508724e+00,
       1.89999950e+00, 1.61737001e+00, 8.44152570e-01, 1.36698449e+00,
       4.11079556e-01, 1.00329375e+00, 4.19265449e-01, 1.27181160e+00,
       -2.26750627e-01, 1.89266777e+00, 1.62988770e+00, -3.30326021e-01,
       1.78334460e-01, -1.71269858e+00, 7.80161142e-01, -8.49044472e-02,
       2.31267139e-01, -8.12533379e-01, 4.08512577e-02, -2.40997225e-01,
       2.44581848e-01, -1.23180270e-01, 6.44825876e-01, 7.33422697e-01,
       -5.30491352e-01, -6.76512942e-02, -4.17437702e-01,
       -9.77746025e-02, 2.34121203e-01, 2.23483905e-01, -1.04217911e+00,
       -9.22026455e-01, 3.92323315e-01, -4.93027538e-01, 1.58134215e-02,
       -7.91485488e-01, 5.12953758e-01, 1.93819910e-01, 1.28559902e-01,
       1.50424704e-01, 4.81853932e-01, 5.89360595e-01, -1.12429535e+00,
       2.64349282e-01, 6.15006447e-01, -7.41814375e-02, 8.57084453e-01,
       -7.73605525e-01, 1.68625808e+00, -9.15651381e-01, -6.10665083e-01,
       5.45692980e-01, 1.04380049e-01, 4.11461383e-01, -5.36497355e-01,
       -9.35329497e-01, 4.23431545e-01, 8.08479726e-01, 1.46453023e+00,
       6.55001938e-01, 1.08013177e+00, 1.19656575e+00, -5.50633818e-02,
       6.25480637e-02, 1.88989854e+00, -7.13958442e-01, -2.12954059e-01,
       -1.51101977e-01, -8.94829512e-01, 3.63234766e-02, -7.46578157e-01,
       6.66531101e-02, -4.32068586e-01, 4.84234840e-03, 3.80202115e-01,
       -1.08266145e-01, 6.24373198e-01, -1.00041974e+00, -9.43284780e-02,
       -7.99047574e-03, -2.87728161e-01, -4.98544812e-01, 7.34437406e-01,
       -5.04261494e-01, 2.47540459e-01, -2.91450799e-01, -1.32684678e-01,
       7.46312976e-01, -2.91220695e-01, 2.66667187e-01, -4.75411057e-01,
       -9.64398265e-01, 9.29744065e-01, 2.66834289e-01, -3.27691048e-01,
       -3.42191547e-01, -8.50749969e-01, 4.74186301e-01, 1.40007091e+00,
       6.30876184e-01, 8.52114677e-01, 3.24066311e-01, -4.99326795e-01,
       3.85334820e-01, -5.66433847e-01, 4.31760907e-01, -1.01830566e+00,
       -7.12287068e-01, -2.50783443e-01, -3.98855396e-02,
       -3.10544610e-01, 3.76743935e-02, 1.69639751e-01, -3.93766433e-01,
       2.50239372e-01, -1.01676106e+00, 6.65966690e-01, -3.61573279e-01,
       -7.11824000e-02, 1.70190483e-01, -2.07004815e-01, 2.46893182e-01,
       -2.13643819e-01, 1.17852092e+00, -1.30940032e+00, 2.70507243e-02,
       1.23976238e-01, -7.80527145e-02, 1.40825659e-01, 6.87168002e-01,
       2.44180083e+00, 1.96230292e+00, 5.62662542e-01, 1.69193935e+00,
       -1.43019229e-01, 5.76450765e-01, 2.85264522e-01, -6.00769341e-01,
       4.47330683e-01, 2.28532642e-01, 1.36250055e+00, 4.26133662e-01,
       6.96760714e-01, 3.87066454e-01, 3.08113009e-01, 3.96814942e-01,
       9.36598003e-01, 7.16710508e-01, 2.13678572e-02, 9.77186561e-01,
       1.00073326e+00, 7.40967810e-01, 6.35529816e-01, 9.27667260e-01,
       1.55308521e+00, -3.03261310e-01, -2.34863739e-02, -2.58646697e-01,
       4.85394269e-01, 8.38774204e-01, -8.96888077e-01, -3.54127847e-02,
       1.04592717e+00, -1.06397927e+00, 2.08755031e-01, 1.60916477e-01,
       5.91815531e-01, 3.95432323e-01, -1.39467299e-01, 5.79784036e-01,
       2.57770121e-01, 4.14669067e-01, 3.90474260e-01, 5.32619476e-01,
       1.37862897e+00, 1.65155923e+00, 1.24376726e+00, -7.83034638e-02,
       1.29108608e+00, 1.41392291e+00, 1.35715781e-02, 1.17487013e+00,
       5.95392399e-02, 1.07075024e+00, 8.69189978e-01, 6.47757888e-01,
       9.19141352e-01, 1.64836502e+00, 3.49695027e-01, 6.06708288e-01,
       1.58176139e-01, 4.23461139e-01, 7.37595260e-01, 1.69396311e-01,
       -7.05991313e-02, -4.29712296e-01, 3.12990278e-01, -7.59390473e-01,
       5.38211763e-01, 2.59675980e-01, -4.36453074e-01, -3.06125790e-01,
       -6.54070973e-01, -4.86542173e-02, 5.37957668e-01, -9.89552021e-01,
       -2.08100033e+00, -7.05637276e-01, -6.08026266e-01,
       -3.48269254e-01, 3.88845131e-02, 8.70841503e-01, 6.68779373e-01,
       6.45642817e-01, 3.94370049e-01, -1.17686212e-01, 1.10511683e-01,
       -1.38139250e-02, -4.95465398e-01, -1.71494412e+00, 2.01128617e-01,
       -4.60991979e-01, 5.19452870e-01, -1.71889925e+00, -3.73646826e-01,
       -4.82035875e-01, -1.51353133e+00, -1.31048337e-01, 7.47725308e-01,
       -7.04478025e-01, 5.37172198e-01, 4.64108586e-01, 5.44302404e-01,
       2.79264748e-01, 1.34289038e+00, 4.94109958e-01, 4.70033318e-01,
       -3.53105009e-01, -2.33925626e-01, -7.87567258e-01, 1.82156906e-01,
       -8.90291095e-01, 7.01707780e-01, -5.57389200e-01, -1.19512224e+00,
       5.07407367e-01, 1.99965790e-01, 3.57894421e-01, 5.72322793e-02,
       1.27717590e+00, -4.68168229e-01, 6.08898520e-01, -5.46965539e-01,
       9.36397552e-01, -5.28090119e-01, -4.11395729e-01, 3.18276733e-01,
       4.98555988e-01, -2.80086964e-01, 5.01879454e-01, -1.79642975e-01,
       -4.48458672e-01, 6.69261962e-02, 8.65730286e-01, 2.07459879e+00,
       3.94887745e-01, 1.19151771e+00, 6.37944877e-01, 2.88408250e-01,
       6.32558405e-01, 2.61963487e-01, 1.35328591e+00, 1.68850154e-01,
       2.62851268e-02, -1.18900396e-01, -2.15457320e-01, 7.44292021e-01,
       4.44860965e-01, 6.84117436e-01, 5.21950722e-01, 4.97911543e-01,
       2.87855536e-01, -1.04132630e-01, 9.17562425e-01, 9.74006116e-01,
       1.50882959e-01, 5.85814178e-01, 1.45424533e+00, 1.22183526e+00,
       6.01001799e-01, 2.38906622e-01, -5.14993770e-03, 3.94893885e-01,
       6.00248754e-01, -3.84459049e-02, 5.42168356e-02, 4.33809370e-01,
       -3.98627549e-01, -1.80724308e-01, 1.65151417e-01, 4.44763213e-01,
       2.50227809e-01, 1.96789339e-01, 5.89106828e-02, -1.73072293e-01,
       5.84570885e-01, -6.62288725e-01, 6.64691687e-01, 5.31397998e-01,
       3.94561529e-01, 1.42127728e+00, 3.72246504e-01, 1.01797044e+00,
       1.39423048e+00, 9.83150303e-01, 3.76604170e-01, 5.02145052e-01,
       2.65900970e-01, -5.05829930e-01, 1.04387891e+00, -1.65802896e-01,
       9.36500251e-01, 9.56928253e-01, 5.64385653e-01, 9.24976289e-01,
       4.88758564e-01, 2.40047216e-01, 5.04003525e-01, 3.82987767e-01,
       2.92647809e-01, 3.67702216e-01, 2.68064857e-01, 1.59647763e+00,
       4.64512110e-01, -1.39464766e-01, 1.10418260e+00, 1.58694267e+00,
       8.17257345e-01, 1.04757190e+00, 5.67853451e-01, 5.93994975e-01,
       7.59071052e-01, -2.27160901e-02, 1.25319958e-01, 5.20942174e-03,
       6.59851134e-01, 1.19706905e+00, 5.88170469e-01, -3.23418468e-01,
       -5.00187837e-02, 3.22768003e-01, -6.71201408e-01, 2.73725599e-01,
       -6.70891881e-01, -8.31143737e-01, -5.25972188e-01,
       -5.94078243e-01, -9.14946020e-01, -1.42084467e+00,
       -8.56503963e-01, -1.57369065e+00, -1.21063983e+00,
       -2.26154947e+00, 4.19017792e-01, -1.23082530e+00, -6.58490732e-02,
       8.63679945e-02, -3.91641498e-01, 2.81416059e-01, -1.39324021e+00,
       -9.42482769e-01, 8.00342858e-01, 6.02861792e-02, -1.11296296e+00,
       6.66292459e-02, -3.91379088e-01, 3.66799653e-01, 1.02587676e+00,
       8.10988188e-01, 6.34709060e-01, 7.00601161e-01, -3.84024650e-01,
       -5.70610046e-01, -7.14065656e-02, 8.05238068e-01, 5.71573138e-01,
       1.97991991e+00, 4.95041728e-01, 1.30548751e+00, -1.17029297e+00,
       -1.01223171e+00, -1.75140545e-01, -4.85137165e-01,
       -4.05983627e-01, -2.69155413e-01, -1.98509172e-01,
       -7.75483191e-01, -9.24349487e-01, -5.65189481e-01,
       -9.46974456e-01, 1.06133275e-01, 4.98782694e-01, -3.80590826e-01,
       2.52239734e-01, -3.05384964e-01, -3.13837856e-01, -6.20427668e-01,
       -2.08179921e-01, -1.12658274e+00, -5.62689662e-01, 8.05281281e-01,
       -5.51275730e-01, 2.76812881e-01, 5.77386856e-01, 1.07372537e-01,
       5.92614651e-01, 8.39390337e-01, -2.06678510e-02, 5.87151408e-01,
       1.66022921e+00, 9.81298566e-01, 1.29802912e-01, 1.33599079e+00,
       -3.33927572e-01, 6.15420222e-01, -1.16420197e+00, -8.26877296e-01,
       -8.49740326e-01, 4.93222833e-01, -1.20745897e+00, 2.41887063e-01,
       2.38093686e+00, -2.25241035e-01, -1.67897549e-02, -9.56230164e-02,
       -2.20564634e-01, 7.13152945e-01, 5.71456194e-01, -1.71400994e-01,
       1.23096339e-01, 6.52260303e-01, 3.92606735e-01, -3.39562744e-02,
       6.09821498e-01, -9.54032421e-01, -6.54103309e-02, 7.57038653e-01,
       3.95028174e-01, 1.12251103e+00, 2.20084524e+00, 1.09391141e+00,
       1.70288146e+00, 3.44149947e-01, 8.72682407e-02, -9.52781796e-01,
       7.90110007e-02, -8.69739950e-01, -1.96807817e-01, -4.58017290e-01,
       2.17345376e-02, -3.45442742e-02, 5.20959496e-01, -2.67919749e-01,
       3.33567500e-01, -8.19000900e-02, 8.25941205e-01, 7.78851986e-01,
       2.81158924e-01, 6.57108948e-02, 5.91576636e-01, 4.70592886e-01,
       7.02022135e-01, 8.77197087e-01, 1.30536997e+00, -8.53239298e-01,
       1.45867395e+00, 1.55015087e+00, 2.01139152e-01, 2.81578153e-01,
       7.27461219e-01, 7.55960569e-02, -2.15503320e-01, 4.87153262e-01,
       -6.72362566e-01, -7.60440409e-01, 5.60390111e-03, 6.15284145e-01,
       2.60840431e-02, 1.37771046e+00, 2.08984107e-01, 1.91140258e+00,
       9.71711576e-01, 1.73414922e+00, 8.98446202e-01, 1.48707712e+00,
       8.63414884e-01, 1.05148840e+00, 3.69280227e-03, -4.77856994e-01,
       5.85429132e-01, -7.47377157e-01, 1.11146480e-01, -8.92264307e-01,
       -3.33478719e-01, -3.76678735e-01, -5.40690958e-01,
       -2.90590286e-01, 4.74508792e-01, 5.98024964e-01, -1.91591159e-01,
       -2.97153383e-01, -2.40537792e-01, -1.73429474e-01,
       -6.56957626e-01, -2.53356677e-02, 7.45193660e-01, 4.27239269e-01,
       -4.24200922e-01, -1.33385277e+00, -3.49396348e-01,
       -9.62986052e-01, -9.78358835e-02, 1.02271676e+00, -1.10607076e+00,
       6.87878907e-01, 1.75349379e+00, 3.13508302e-01, 2.48125136e-01,
       4.44861054e-01, -5.05610049e-01, 1.45157373e+00, 1.30213118e+00,
       7.87788093e-01, -6.08557045e-01, 3.50793302e-01, 3.70558172e-01,
       -1.14412524e-01, 2.98852473e-01, 2.19629668e-02, -5.99741638e-01,
       -8.46521735e-01, 4.85740677e-02, 3.93736392e-01, -5.63931882e-01,
       1.99083269e-01, 1.82608992e-01, 1.05755262e-01, -7.61865377e-01,
       2.78309643e-01, -1.84340641e-01, -5.41707158e-01, 4.89081055e-01,
       6.17108285e-01, -2.43613213e-01, -8.05149376e-01, 1.16178334e-01,
       9.37686116e-02, -7.47974217e-01, -4.03636247e-01, -3.74247432e-01,
       4.04029548e-01, 1.17460331e-02, 2.50961129e-02, -5.15473559e-02,
       -2.48695776e-01, 3.00832331e-01, -1.19294047e+00, -3.07520062e-01,
       -1.16493460e-02, -1.11880057e-01, 6.45344436e-01, -4.63791549e-01,
       1.95165291e-01, 2.13407218e-01, 3.16804260e-01, 1.25155795e+00,
       -2.82741696e-01, 7.96365380e-01, 6.91607654e-01, 1.04075015e+00,
       1.14815462e+00, 1.34213090e+00, -1.03248902e-01, 1.38586926e+00,
       1.05621362e+00, 9.51626301e-01, 1.50065029e+00, 6.40764013e-02,
       1.60854548e-01, 2.50854880e-01, 4.41684484e-01, 3.44444215e-01,
       4.56880182e-01, 4.70094919e-01, 5.18877268e-01, 5.21074176e-01,
       6.66926920e-01, 8.87915015e-01, 6.88981414e-01, 1.56354308e-01,
       -1.45869285e-01, -6.50271624e-02, 1.18774958e-01, -2.56479502e-01,
       -4.69698071e-01, 9.21226084e-01, 1.40162480e+00, 4.08879519e-01,
       3.29519063e-01, 3.66582751e-01, 9.10290182e-01, 8.85984749e-02,
       3.49755913e-01, 7.04766154e-01, 8.15555155e-01, 2.88959414e-01,
       -1.44721925e-01, 6.38865948e-01, 1.43864870e+00, 1.50058234e+00,
       1.70574691e-02, 1.52025044e+00, -9.07299340e-01, -4.98791605e-01,
       1.62361896e+00, 2.71235728e+00, 1.18974471e+00, 1.26861072e+00,
       6.18843794e-01, 9.25709486e-01, -3.44618052e-01, 2.02924207e-01,
       -1.13367403e+00, -2.27517769e-01, 3.16540860e-02, -6.69328511e-01,
       8.65988672e-01, -6.54723048e-01, -1.11150634e+00, 3.69841993e-01,
       2.31328443e-01, 5.66038907e-01, 2.48491943e-01, -2.08334431e-01,
       4.57505643e-01, -6.90853655e-01, -3.32999766e-01, -3.37206513e-01,
       -3.35009426e-01, -6.46300197e-01, -3.83337408e-01, 1.23675885e-02,
       -4.05999161e-02, -1.24975157e+00, 1.92718878e-01, -1.35451174e+00,
       -9.10108268e-01, -3.72177392e-01, 1.87448338e-01, -1.92188881e-02,
       1.13678896e+00, -3.39236885e-01, -8.31898093e-01, 2.29779184e-02,
       7.69536197e-01, 4.70905572e-01, 2.44367480e+00, 7.14428052e-02,
       2.11634159e-01, 3.90118062e-01, -5.51843762e-01, -1.76060653e+00,
       1.41468072e+00, -1.60135961e+00, -6.41638577e-01, 9.27527130e-01,
       -1.03835344e+00, -2.48590916e-01, 1.32423952e-01, 6.43937349e-01,
       2.99058676e-01, 1.04859471e+00, -4.64165896e-01, 8.17880213e-01,
       2.05911219e-01, 5.79893947e-01, 4.85792190e-01, -1.24396041e-01,
       7.76783228e-01, -9.59707677e-01, -1.97999626e-01, -1.53176069e-01,
       4.52509671e-01, -6.11855239e-02, -4.67478782e-01, 7.31087208e-01,
       1.49064744e+00, 7.85789967e-01, 8.64900798e-02, 1.72371852e+00,
       7.48167455e-01, 2.39300758e-01, 1.18617415e+00, 1.30727494e+00,
       -2.03052148e-01, -3.94075781e-01, 6.12720668e-01, -6.61161900e-01,
       -7.51516163e-01, -2.27720231e-01, -1.30184710e+00,
       -2.33233303e-01, -4.06455427e-01, 2.58368164e-01, -3.11174750e-01,
       -1.69974491e-01, -2.72208601e-01, -1.07299948e+00,
       -5.83573163e-01, 8.05288196e-01, -3.38233143e-01, 4.20109630e-01,
       5.51860750e-01, -7.80381083e-01, -3.96187752e-01, -1.69687718e-01,
       6.37202919e-01, -1.00855744e+00, 7.57300317e-01, -4.37933415e-01,
       -5.68586469e-01, 6.11514449e-01, 6.88529015e-02, -8.60415578e-01,
       2.55944163e-01, -7.03814149e-01, -1.99907735e-01, -3.73949468e-01,
       -5.62554598e-01, 8.88399959e-01, -1.85207382e-01, 2.64022112e-01,
       1.73187152e-01, 6.25781536e-01, -7.67599821e-01, 7.18563143e-03,
       -4.31175113e-01, 3.47102359e-02, -6.29894972e-01, 1.22760010e+00,
       1.37847614e+00, 2.19559264e+00, 6.87497199e-01, 6.91979945e-01,
       1.24379325e+00, 1.13811600e+00, 7.08056211e-01, 1.76480293e+00,
       1.41992474e+00, 1.85817921e+00, 1.34455061e+00, 9.25656319e-01,
       9.74752307e-01, -2.92232454e-01, 1.76827991e+00, 1.50112700e+00,
       7.93182850e-01, -5.16462326e-01, -5.79329312e-01, -4.49979752e-01,
       3.52964610e-01, 1.77581787e-01, 1.96785644e-01, -8.03447589e-02,
       9.77814555e-01, -4.10879403e-01, -5.59116006e-01, -1.79613340e+00,
       -5.46012878e-01, 8.48424211e-02, -6.24434114e-01, 1.74595758e-01,
       2.36408845e-01, -1.36196017e-02, 1.20287724e-01, -7.73840010e-01,
       2.78303027e-01, -1.20310307e+00, -3.33711445e-01, -3.06362212e-01,
       -9.02671397e-01, -1.68765652e+00, -8.09006631e-01, 1.46408841e-01,
       7.26070881e-01, -7.68455267e-01, -6.24821663e-01, -1.04902947e+00,
       1.32307236e-03, -8.87047768e-01, -8.31184387e-01, -3.35758179e-02,
       -1.00840282e+00, -1.05800879e+00, -9.14543688e-01,
       -3.01154047e-01, 7.58860469e-01, -7.71988809e-01, 1.40783442e-02,
       -4.45030630e-01, -8.59883904e-01, -2.84190148e-01,
       -9.60870832e-02, 3.00512642e-01, 6.34740472e-01, 1.31437528e+00,
       8.02852988e-01, 1.11355293e+00, 8.04309189e-01, 7.77600527e-01,
       -3.94656539e-01, 6.22107029e-01, -7.85684884e-01, 1.90875769e-01,
       -3.66553158e-01, -8.93608481e-02, -3.71412814e-01, 4.81683284e-01,
       -2.40903556e-01, -6.35730207e-01, -8.36539745e-01, 1.52593926e-01,
       2.66378015e-01, -3.60826671e-01, -2.34969631e-01, -1.23705685e+00,
       1.09758723e+00, -5.62772229e-02, 4.22243834e-01, 2.86710024e-01,
       9.59353507e-01, 2.80056059e-01, 8.86507690e-01, 1.18765998e+00,
       1.54493201e+00, -4.98421699e-01, -1.94859058e-01, 6.28736913e-01,
       3.53116453e-01, -1.94631055e-01, -5.22165895e-01, -3.09340149e-01,
       -8.21419179e-01, 7.08395183e-01, 1.07247341e+00, 4.65097070e-01,
       5.26793242e-01, -5.06320357e-01, 2.08657384e-01, 4.75016743e-01,
       4.84645143e-02, -4.09893453e-01, -6.61107242e-01, 6.93066061e-01,
       -9.13601995e-01, 1.72884569e-01, -5.14904499e-01, 6.68866873e-01,
       -7.08467722e-01, -4.12512898e-01, -7.79641718e-02,
       -7.43262410e-01, -3.76752019e-01, -9.52816188e-01,
       -4.55023199e-02, 9.38854694e-01, 1.58628430e-02, 2.83778995e-01,
       1.16376805e+00, -1.25781190e+00, 4.42412585e-01, -5.22444367e-01,
       1.81328997e-01, 1.27909705e-01, 1.44823730e-01, 1.18048899e-01,
       1.17831540e+00, 2.73457974e-01, -2.59753495e-01, 4.42613572e-01,
       1.68062937e+00, 1.28503227e+00, -1.06103368e-01, 5.55933595e-01,
       1.31701303e+00, 1.05244173e-02, 6.96054339e-01, 1.09877801e+00,
       5.03209114e-01, 2.08960518e-01, 9.29688334e-01, -3.69110465e-01,
       3.60291958e-01, 1.11679757e+00, -1.17436029e-01, -7.04642162e-02,
       4.40109938e-01, 4.01837021e-01, 1.37451768e+00, 5.81845045e-01,
       1.85567832e+00, -1.19160426e+00, -9.81095970e-01, -1.12891173e+00,
       -7.82097131e-02, 9.58756089e-01, 2.36108258e-01, 6.55082226e-01,
       6.66879833e-01, -3.63317996e-01, 2.36502218e+00, 4.47189331e-01,
       1.26049197e+00, -3.43768477e-01, 8.54281008e-01, 7.26476550e-01,
       -9.63218138e-02, 5.04055977e-01, 2.12879732e-01, -1.35722196e+00,
       4.57139462e-01, -3.33641946e-01, -9.20399547e-01, -4.32249755e-01,
       -1.66131294e+00, -9.04864490e-01, -4.51230735e-01,
       -5.89168549e-01, -2.91316062e-02, -4.90840733e-01,
       -2.48292431e-01, -6.28548265e-02, 3.33625108e-01, 3.48778188e-01,
       -5.69517255e-01, -7.73978174e-01, -4.96142097e-02, 1.10381246e-01,
       -5.17160952e-01, -1.43335506e-01, -3.86166751e-01, 1.71607137e-01,
       -1.45131242e+00, -5.59273541e-01, -8.18547308e-01,
       -1.92140639e-01, 8.51988852e-01, 2.43378237e-01, 1.24320781e+00,
       1.67377681e-01, 8.44753265e-01, -7.70691410e-03, 2.02144170e+00,
       7.36988664e-01, 2.49297008e-01, -1.34058297e-01, -5.04442632e-01,
       1.47078797e-01, -7.71349013e-01, -5.23719974e-02, 1.84878726e-02,
       6.59586132e-01, -8.44198287e-01, 4.17180628e-01, 5.16065419e-01,
       -1.18806258e-01, 4.83352602e-01, -2.23646790e-01, -8.98776129e-02,
       -2.34974846e-01, 1.18589711e+00, 5.91942370e-01, 8.04317445e-02,
       -5.16402662e-01, 3.06491762e-01, -1.65932402e-01, -7.74762511e-01,
       1.88914621e+00, -4.98310953e-01, -4.73343968e-01, -5.66940188e-01,
       -8.46526384e-01, 5.09395242e-01, 3.62820216e-02, -1.22469962e+00,
       4.58191693e-01, -5.04190624e-01, 2.23227844e-01, 4.22934502e-01,
       1.21358700e-01, 4.40516323e-01, 3.62129092e-01, -3.01196724e-01,
       1.02235012e-01, -6.02222502e-01, -3.87489825e-01, -8.85313094e-01,
       -8.93232405e-01, -4.81956840e-01, -6.90535724e-01,
       -6.74758852e-01, 3.63146067e-02, -5.23228943e-02, -1.00707710e+00,
       -2.60926574e-01, -7.87754536e-01, -1.05514073e+00, 3.55909854e-01,
       6.10274911e-01, -4.66625333e-01, 1.50619078e+00, -8.55364054e-02,
       2.22677961e-01, -1.65538847e+00, -6.62418783e-01, -1.18964791e+00,
       7.27803767e-01, -6.78878188e-01, -8.14996433e+00 ]
